digraph Tree {
node [shape=box, style="filled, rounded", color="black", fontname="helvetica"] ;
edge [fontname="helvetica"] ;
0 [label="petal length (cm) <= 4.75\ngini = 0.66\nsamples = 92\nvalue = [42.0, 48.0, 60.0]\nclass = virginica", fillcolor="#f0e8fc"] ;
1 [label="petal width (cm) <= 0.8\ngini = 0.52\nsamples = 57\nvalue = [42, 45, 2]\nclass = versicolor", fillcolor="#f2fdf7"] ;
0 -> 1 [labeldistance=2.5, labelangle=45, headlabel="True"] ;
2 [label="gini = 0.0\nsamples = 28\nvalue = [42, 0, 0]\nclass = setosa", fillcolor="#e58139"] ;
1 -> 2 ;
3 [label="petal width (cm) <= 1.65\ngini = 0.08\nsamples = 29\nvalue = [0, 45, 2]\nclass = versicolor", fillcolor="#42e687"] ;
1 -> 3 ;
4 [label="gini = 0.0\nsamples = 28\nvalue = [0, 45, 0]\nclass = versicolor", fillcolor="#39e581"] ;
3 -> 4 ;
5 [label="gini = 0.0\nsamples = 1\nvalue = [0, 0, 2]\nclass = virginica", fillcolor="#8139e5"] ;
3 -> 5 ;
6 [label="petal length (cm) <= 5.0\ngini = 0.09\nsamples = 35\nvalue = [0, 3, 58]\nclass = virginica", fillcolor="#8843e6"] ;
0 -> 6 [labeldistance=2.5, labelangle=-45, headlabel="False"] ;
7 [label="petal width (cm) <= 1.65\ngini = 0.42\nsamples = 6\nvalue = [0, 3, 7]\nclass = virginica", fillcolor="#b78ef0"] ;
6 -> 7 ;
8 [label="gini = 0.0\nsamples = 2\nvalue = [0, 3, 0]\nclass = versicolor", fillcolor="#39e581"] ;
7 -> 8 ;
9 [label="gini = 0.0\nsamples = 4\nvalue = [0, 0, 7]\nclass = virginica", fillcolor="#8139e5"] ;
7 -> 9 ;
10 [label="gini = 0.0\nsamples = 29\nvalue = [0, 0, 51]\nclass = virginica", fillcolor="#8139e5"] ;
6 -> 10 ;
}